digraph Tree {
node [shape=box, style="filled, rounded", color="black", fontname="helvetica"] ;
edge [fontname="helvetica"] ;
0 [label=<Flipper Length (mm) &le; 206.5<br/>squared_error = 644064.726<br/>samples = 273<br/>value = 4223.901>, fillcolor="#f4c9aa"] ;
1 [label=<Flipper Length (mm) &le; 194.5<br/>squared_error = 177533.35<br/>samples = 169<br/>value = 3706.657>, fillcolor="#f8dfcd"] ;
0 -> 1 [labeldistance=2.5, labelangle=45, headlabel="True"] ;
2 [label=<Flipper Length (mm) &le; 189.5<br/>squared_error = 146913.614<br/>samples = 112<br/>value = 3575.67>, fillcolor="#fae5d6"] ;
1 -> 2 ;
3 [label=<Flipper Length (mm) &le; 179.5<br/>squared_error = 132373.829<br/>samples = 62<br/>value = 3487.903>, fillcolor="#fae9dc"] ;
2 -> 3 ;
4 [label=<Flipper Length (mm) &le; 178.5<br/>squared_error = 109947.917<br/>samples = 6<br/>value = 3312.5>, fillcolor="#fcf0e8"] ;
3 -> 4 ;
5 [label=<Flipper Length (mm) &le; 177.0<br/>squared_error = 104600.0<br/>samples = 5<br/>value = 3380.0>, fillcolor="#fbede3"] ;
4 -> 5 ;
6 [label=<Flipper Length (mm) &le; 175.0<br/>squared_error = 625.0<br/>samples = 2<br/>value = 3425.0>, fillcolor="#fbebe0"] ;
5 -> 6 ;
7 [label=<squared_error = 0.0<br/>samples = 1<br/>value = 3400.0>, fillcolor="#fbede2"] ;
6 -> 7 ;
8 [label=<squared_error = 0.0<br/>samples = 1<br/>value = 3450.0>, fillcolor="#fbeadf"] ;
6 -> 8 ;
9 [label=<squared_error = 171666.667<br/>samples = 3<br/>value = 3350.0>, fillcolor="#fcefe5"] ;
5 -> 9 ;
10 [label=<squared_error = 0.0<br/>samples = 1<br/>value = 2975.0>, fillcolor="#ffffff"] ;
4 -> 10 ;
11 [label=<Flipper Length (mm) &le; 180.5<br/>squared_error = 131127.033<br/>samples = 56<br/>value = 3506.696>, fillcolor="#fae8db"] ;
3 -> 11 ;
12 [label=<squared_error = 20600.0<br/>samples = 5<br/>value = 3720.0>, fillcolor="#f8dfcc"] ;
11 -> 12 ;
13 [label=<Flipper Length (mm) &le; 183.5<br/>squared_error = 137065.071<br/>samples = 51<br/>value = 3485.784>, fillcolor="#fae9dc"] ;
11 -> 13 ;
14 [label=<Flipper Length (mm) &le; 181.5<br/>squared_error = 78719.136<br/>samples = 9<br/>value = 3369.444>, fillcolor="#fbeee4"] ;
13 -> 14 ;
15 [label=<squared_error = 104500.0<br/>samples = 5<br/>value = 3425.0>, fillcolor="#fbebe0"] ;
14 -> 15 ;
16 [label=<Flipper Length (mm) &le; 182.5<br/>squared_error = 37812.5<br/>samples = 4<br/>value = 3300.0>, fillcolor="#fcf1e9"] ;
14 -> 16 ;
17 [label=<squared_error = 18906.25<br/>samples = 2<br/>value = 3287.5>, fillcolor="#fcf1ea"] ;
16 -> 17 ;
18 [label=<squared_error = 56406.25<br/>samples = 2<br/>value = 3312.5>, fillcolor="#fcf0e8"] ;
16 -> 18 ;
19 [label=<Flipper Length (mm) &le; 184.5<br/>squared_error = 146045.918<br/>samples = 42<br/>value = 3510.714>, fillcolor="#fae8da"] ;
13 -> 19 ;
20 [label=<squared_error = 272831.633<br/>samples = 7<br/>value = 3664.286>, fillcolor="#f9e1d0"] ;
19 -> 20 ;
21 [label=<Flipper Length (mm) &le; 187.5<br/>squared_error = 115028.571<br/>samples = 35<br/>value = 3480.0>, fillcolor="#fae9dd"] ;
19 -> 21 ;
22 [label=<Flipper Length (mm) &le; 185.5<br/>squared_error = 83816.163<br/>samples = 23<br/>value = 3443.478>, fillcolor="#fbebdf"] ;
21 -> 22 ;
23 [label=<squared_error = 86666.667<br/>samples = 6<br/>value = 3550.0>, fillcolor="#fae6d8"] ;
22 -> 23 ;
24 [label=<Flipper Length (mm) &le; 186.5<br/>squared_error = 77391.869<br/>samples = 17<br/>value = 3405.882>, fillcolor="#fbece2"] ;
22 -> 24 ;
25 [label=<squared_error = 56000.0<br/>samples = 5<br/>value = 3450.0>, fillcolor="#fbeadf"] ;
24 -> 25 ;
26 [label=<squared_error = 85156.25<br/>samples = 12<br/>value = 3387.5>, fillcolor="#fbede3"] ;
24 -> 26 ;
27 [label=<Flipper Length (mm) &le; 188.5<br/>squared_error = 167395.833<br/>samples = 12<br/>value = 3550.0>, fillcolor="#fae6d8"] ;
21 -> 27 ;
28 [label=<squared_error = 266336.806<br/>samples = 6<br/>value = 3529.167>, fillcolor="#fae7d9"] ;
27 -> 28 ;
29 [label=<squared_error = 67586.806<br/>samples = 6<br/>value = 3570.833>, fillcolor="#fae5d6"] ;
27 -> 29 ;
30 [label=<Flipper Length (mm) &le; 190.5<br/>squared_error = 143547.25<br/>samples = 50<br/>value = 3684.5>, fillcolor="#f9e0cf"] ;
2 -> 30 ;
31 [label=<squared_error = 135640.432<br/>samples = 18<br/>value = 3738.889>, fillcolor="#f8decb"] ;
30 -> 31 ;
32 [label=<Flipper Length (mm) &le; 191.5<br/>squared_error = 145394.897<br/>samples = 32<br/>value = 3653.906>, fillcolor="#f9e2d1"] ;
30 -> 32 ;
33 [label=<squared_error = 192530.992<br/>samples = 11<br/>value = 3634.091>, fillcolor="#f9e2d2"] ;
32 -> 33 ;
34 [label=<Flipper Length (mm) &le; 192.5<br/>squared_error = 120391.156<br/>samples = 21<br/>value = 3664.286>, fillcolor="#f9e1d0"] ;
32 -> 34 ;
35 [label=<squared_error = 145503.472<br/>samples = 6<br/>value = 3720.833>, fillcolor="#f8dfcc"] ;
34 -> 35 ;
36 [label=<Flipper Length (mm) &le; 193.5<br/>squared_error = 108555.556<br/>samples = 15<br/>value = 3641.667>, fillcolor="#f9e2d1"] ;
34 -> 36 ;
37 [label=<squared_error = 123232.249<br/>samples = 13<br/>value = 3638.462>, fillcolor="#f9e2d2"] ;
36 -> 37 ;
38 [label=<squared_error = 12656.25<br/>samples = 2<br/>value = 3662.5>, fillcolor="#f9e1d0"] ;
36 -> 38 ;
39 [label=<Flipper Length (mm) &le; 202.5<br/>squared_error = 137741.613<br/>samples = 57<br/>value = 3964.035>, fillcolor="#f6d4bb"] ;
1 -> 39 ;
40 [label=<Flipper Length (mm) &le; 200.5<br/>squared_error = 128264.0<br/>samples = 50<br/>value = 3919.0>, fillcolor="#f7d6bf"] ;
39 -> 40 ;
41 [label=<Flipper Length (mm) &le; 195.5<br/>squared_error = 137754.39<br/>samples = 44<br/>value = 3901.136>, fillcolor="#f7d7c0"] ;
40 -> 41 ;
42 [label=<squared_error = 163051.658<br/>samples = 14<br/>value = 3844.643>, fillcolor="#f7d9c4"] ;
41 -> 42 ;
43 [label=<Flipper Length (mm) &le; 198.5<br/>squared_error = 123764.583<br/>samples = 30<br/>value = 3927.5>, fillcolor="#f6d6be"] ;
41 -> 43 ;
44 [label=<Flipper Length (mm) &le; 196.5<br/>squared_error = 146508.264<br/>samples = 22<br/>value = 3965.909>, fillcolor="#f6d4bb"] ;
43 -> 44 ;
45 [label=<squared_error = 125117.188<br/>samples = 8<br/>value = 3906.25>, fillcolor="#f7d7bf"] ;
44 -> 45 ;
46 [label=<Flipper Length (mm) &le; 197.5<br/>squared_error = 155535.714<br/>samples = 14<br/>value = 4000.0>, fillcolor="#f6d2b9"] ;
44 -> 46 ;
47 [label=<squared_error = 198281.25<br/>samples = 8<br/>value = 4000.0>, fillcolor="#f6d2b9"] ;
46 -> 47 ;
48 [label=<squared_error = 98541.667<br/>samples = 6<br/>value = 4000.0>, fillcolor="#f6d2b9"] ;
46 -> 48 ;
49 [label=<Flipper Length (mm) &le; 199.5<br/>squared_error = 46005.859<br/>samples = 8<br/>value = 3821.875>, fillcolor="#f7dac5"] ;
43 -> 49 ;
50 [label=<squared_error = 53250.0<br/>samples = 5<br/>value = 3750.0>, fillcolor="#f8ddca"] ;
49 -> 50 ;
51 [label=<squared_error = 10972.222<br/>samples = 3<br/>value = 3941.667>, fillcolor="#f6d5bd"] ;
49 -> 51 ;
52 [label=<Flipper Length (mm) &le; 201.5<br/>squared_error = 39166.667<br/>samples = 6<br/>value = 4050.0>, fillcolor="#f5d0b6"] ;
40 -> 52 ;
53 [label=<squared_error = 32000.0<br/>samples = 5<br/>value = 4100.0>, fillcolor="#f5ceb2"] ;
52 -> 53 ;
54 [label=<squared_error = 0.0<br/>samples = 1<br/>value = 3800.0>, fillcolor="#f8dbc7"] ;
52 -> 54 ;
55 [label=<Flipper Length (mm) &le; 205.5<br/>squared_error = 87474.49<br/>samples = 7<br/>value = 4285.714>, fillcolor="#f3c6a6"] ;
39 -> 55 ;
56 [label=<Flipper Length (mm) &le; 204.0<br/>squared_error = 80138.889<br/>samples = 6<br/>value = 4341.667>, fillcolor="#f3c4a2"] ;
55 -> 56 ;
57 [label=<squared_error = 90150.0<br/>samples = 5<br/>value = 4310.0>, fillcolor="#f3c5a4"] ;
56 -> 57 ;
58 [label=<squared_error = 0.0<br/>samples = 1<br/>value = 4500.0>, fillcolor="#f1bd97"] ;
56 -> 58 ;
59 [label=<squared_error = 0.0<br/>samples = 1<br/>value = 3950.0>, fillcolor="#f6d5bc"] ;
55 -> 59 ;
60 [label=<Flipper Length (mm) &le; 217.5<br/>squared_error = 260945.821<br/>samples = 104<br/>value = 5064.423>, fillcolor="#eca470"] ;
0 -> 60 [labeldistance=2.5, labelangle=-45, headlabel="False"] ;
61 [label=<Flipper Length (mm) &le; 211.5<br/>squared_error = 185365.601<br/>samples = 64<br/>value = 4814.844>, fillcolor="#efaf81"] ;
60 -> 61 ;
62 [label=<Flipper Length (mm) &le; 209.5<br/>squared_error = 147096.0<br/>samples = 25<br/>value = 4527.0>, fillcolor="#f1bc95"] ;
61 -> 62 ;
63 [label=<Flipper Length (mm) &le; 208.5<br/>squared_error = 214006.076<br/>samples = 12<br/>value = 4635.417>, fillcolor="#f0b78e"] ;
62 -> 63 ;
64 [label=<Flipper Length (mm) &le; 207.5<br/>squared_error = 206005.859<br/>samples = 8<br/>value = 4503.125>, fillcolor="#f1bd97"] ;
63 -> 64 ;
65 [label=<squared_error = 275625.0<br/>samples = 2<br/>value = 4525.0>, fillcolor="#f1bc95"] ;
64 -> 65 ;
66 [label=<squared_error = 182586.806<br/>samples = 6<br/>value = 4495.833>, fillcolor="#f1bd97"] ;
64 -> 66 ;
67 [label=<squared_error = 125000.0<br/>samples = 4<br/>value = 4900.0>, fillcolor="#eeab7c"] ;
63 -> 67 ;
68 [label=<Flipper Length (mm) &le; 210.5<br/>squared_error = 64467.456<br/>samples = 13<br/>value = 4426.923>, fillcolor="#f2c09c"] ;
62 -> 68 ;
69 [label=<squared_error = 61404.959<br/>samples = 11<br/>value = 4386.364>, fillcolor="#f2c29f"] ;
68 -> 69 ;
70 [label=<squared_error = 22500.0<br/>samples = 2<br/>value = 4650.0>, fillcolor="#f0b68d"] ;
68 -> 70 ;
71 [label=<Flipper Length (mm) &le; 214.5<br/>squared_error = 122739.974<br/>samples = 39<br/>value = 4999.359>, fillcolor="#eda775"] ;
61 -> 71 ;
72 [label=<Flipper Length (mm) &le; 213.5<br/>squared_error = 123055.556<br/>samples = 15<br/>value = 4908.333>, fillcolor="#eeab7b"] ;
71 -> 72 ;
73 [label=<Flipper Length (mm) &le; 212.5<br/>squared_error = 133650.0<br/>samples = 10<br/>value = 5015.0>, fillcolor="#eda674"] ;
72 -> 73 ;
74 [label=<squared_error = 38650.0<br/>samples = 5<br/>value = 4840.0>, fillcolor="#eeae80"] ;
73 -> 74 ;
75 [label=<squared_error = 167400.0<br/>samples = 5<br/>value = 5190.0>, fillcolor="#eb9f68"] ;
73 -> 75 ;
76 [label=<squared_error = 33600.0<br/>samples = 5<br/>value = 4695.0>, fillcolor="#f0b48a"] ;
72 -> 76 ;
77 [label=<Flipper Length (mm) &le; 215.5<br/>squared_error = 114127.604<br/>samples = 24<br/>value = 5056.25>, fillcolor="#eca571"] ;
71 -> 77 ;
78 [label=<squared_error = 66263.021<br/>samples = 12<br/>value = 5143.75>, fillcolor="#eca16b"] ;
77 -> 78 ;
79 [label=<Flipper Length (mm) &le; 216.5<br/>squared_error = 146679.688<br/>samples = 12<br/>value = 4968.75>, fillcolor="#eda877"] ;
77 -> 79 ;
80 [label=<squared_error = 78188.776<br/>samples = 7<br/>value = 4914.286>, fillcolor="#eeab7b"] ;
79 -> 80 ;
81 [label=<squared_error = 232600.0<br/>samples = 5<br/>value = 5045.0>, fillcolor="#eca572"] ;
79 -> 81 ;
82 [label=<Flipper Length (mm) &le; 228.5<br/>squared_error = 122748.438<br/>samples = 40<br/>value = 5463.75>, fillcolor="#e99355"] ;
60 -> 82 ;
83 [label=<Flipper Length (mm) &le; 220.5<br/>squared_error = 117222.222<br/>samples = 30<br/>value = 5366.667>, fillcolor="#ea975c"] ;
82 -> 83 ;
84 [label=<Flipper Length (mm) &le; 219.5<br/>squared_error = 124722.222<br/>samples = 12<br/>value = 5216.667>, fillcolor="#eb9e66"] ;
83 -> 84 ;
85 [label=<Flipper Length (mm) &le; 218.5<br/>squared_error = 210347.222<br/>samples = 6<br/>value = 5191.667>, fillcolor="#eb9f68"] ;
84 -> 85 ;
86 [label=<squared_error = 229218.75<br/>samples = 4<br/>value = 5237.5>, fillcolor="#eb9d65"] ;
85 -> 86 ;
87 [label=<squared_error = 160000.0<br/>samples = 2<br/>value = 5100.0>, fillcolor="#eca36e"] ;
85 -> 87 ;
88 [label=<squared_error = 37847.222<br/>samples = 6<br/>value = 5241.667>, fillcolor="#eb9d64"] ;
84 -> 88 ;
89 [label=<Flipper Length (mm) &le; 224.5<br/>squared_error = 87222.222<br/>samples = 18<br/>value = 5466.667>, fillcolor="#e99355"] ;
83 -> 89 ;
90 [label=<Flipper Length (mm) &le; 222.5<br/>squared_error = 105555.556<br/>samples = 12<br/>value = 5483.333>, fillcolor="#e99254"] ;
89 -> 90 ;
91 [label=<Flipper Length (mm) &le; 221.5<br/>squared_error = 135555.556<br/>samples = 9<br/>value = 5450.0>, fillcolor="#e99356"] ;
90 -> 91 ;
92 [label=<squared_error = 213600.0<br/>samples = 5<br/>value = 5430.0>, fillcolor="#e99457"] ;
91 -> 92 ;
93 [label=<squared_error = 36875.0<br/>samples = 4<br/>value = 5475.0>, fillcolor="#e99254"] ;
91 -> 93 ;
94 [label=<Flipper Length (mm) &le; 223.5<br/>squared_error = 2222.222<br/>samples = 3<br/>value = 5583.333>, fillcolor="#e88e4d"] ;
90 -> 94 ;
95 [label=<squared_error = 0.0<br/>samples = 1<br/>value = 5550.0>, fillcolor="#e88f4f"] ;
94 -> 95 ;
96 [label=<squared_error = 2500.0<br/>samples = 2<br/>value = 5600.0>, fillcolor="#e78d4c"] ;
94 -> 96 ;
97 [label=<Flipper Length (mm) &le; 226.5<br/>squared_error = 48888.889<br/>samples = 6<br/>value = 5433.333>, fillcolor="#e99457"] ;
89 -> 97 ;
98 [label=<squared_error = 82222.222<br/>samples = 3<br/>value = 5366.667>, fillcolor="#ea975c"] ;
97 -> 98 ;
99 [label=<squared_error = 6666.667<br/>samples = 3<br/>value = 5500.0>, fillcolor="#e89153"] ;
97 -> 99 ;
100 [label=<Flipper Length (mm) &le; 229.5<br/>squared_error = 26225.0<br/>samples = 10<br/>value = 5755.0>, fillcolor="#e68641"] ;
82 -> 100 ;
101 [label=<squared_error = 5625.0<br/>samples = 2<br/>value = 5875.0>, fillcolor="#e58139"] ;
100 -> 101 ;
102 [label=<Flipper Length (mm) &le; 230.5<br/>squared_error = 26875.0<br/>samples = 8<br/>value = 5725.0>, fillcolor="#e68843"] ;
100 -> 102 ;
103 [label=<squared_error = 29795.918<br/>samples = 7<br/>value = 5735.714>, fillcolor="#e68743"] ;
102 -> 103 ;
104 [label=<squared_error = 0.0<br/>samples = 1<br/>value = 5650.0>, fillcolor="#e78b48"] ;
102 -> 104 ;
}